digraph Tree {
node [shape=box] ;
0 [label="X[7] <= 0.278\nentropy = 0.991\nsamples = 5306\nvalue = [2351, 2955]"] ;
1 [label="X[13] <= -0.587\nentropy = 0.529\nsamples = 2280\nvalue = [2007, 273]"] ;
0 -> 1 [labeldistance=2.5, labelangle=45, headlabel="True"] ;
2 [label="entropy = 0.0\nsamples = 1460\nvalue = [1460, 0]"] ;
1 -> 2 ;
3 [label="X[14] <= -0.498\nentropy = 0.918\nsamples = 820\nvalue = [547, 273]"] ;
1 -> 3 ;
4 [label="X[5] <= 1.084\nentropy = 0.592\nsamples = 420\nvalue = [360, 60]"] ;
3 -> 4 ;
5 [label="X[25] <= 0.263\nentropy = 0.529\nsamples = 409\nvalue = [360, 49]"] ;
4 -> 5 ;
6 [label="X[24] <= -0.404\nentropy = 0.351\nsamples = 212\nvalue = [198, 14]"] ;
5 -> 6 ;
7 [label="entropy = 0.0\nsamples = 55\nvalue = [55, 0]"] ;
6 -> 7 ;
8 [label="X[6] <= 0.52\nentropy = 0.434\nsamples = 157\nvalue = [143, 14]"] ;
6 -> 8 ;
9 [label="X[11] <= -0.938\nentropy = 0.288\nsamples = 119\nvalue = [113, 6]"] ;
8 -> 9 ;
10 [label="X[0] <= -0.317\nentropy = 0.954\nsamples = 8\nvalue = [5, 3]"] ;
9 -> 10 ;
11 [label="entropy = 0.0\nsamples = 5\nvalue = [5, 0]"] ;
10 -> 11 ;
12 [label="entropy = 0.0\nsamples = 3\nvalue = [0, 3]"] ;
10 -> 12 ;
13 [label="X[12] <= -0.19\nentropy = 0.179\nsamples = 111\nvalue = [108, 3]"] ;
9 -> 13 ;
14 [label="entropy = 0.0\nsamples = 70\nvalue = [70, 0]"] ;
13 -> 14 ;
15 [label="X[0] <= -0.317\nentropy = 0.378\nsamples = 41\nvalue = [38, 3]"] ;
13 -> 15 ;
16 [label="entropy = 0.0\nsamples = 18\nvalue = [18, 0]"] ;
15 -> 16 ;
17 [label="X[25] <= -0.945\nentropy = 0.559\nsamples = 23\nvalue = [20, 3]"] ;
15 -> 17 ;
18 [label="entropy = 0.0\nsamples = 10\nvalue = [10, 0]"] ;
17 -> 18 ;
19 [label="X[26] <= 0.555\nentropy = 0.779\nsamples = 13\nvalue = [10, 3]"] ;
17 -> 19 ;
20 [label="X[8] <= 0.351\nentropy = 0.954\nsamples = 8\nvalue = [5, 3]"] ;
19 -> 20 ;
21 [label="X[15] <= 0.806\nentropy = 0.918\nsamples = 3\nvalue = [1, 2]"] ;
20 -> 21 ;
22 [label="entropy = 0.0\nsamples = 2\nvalue = [0, 2]"] ;
21 -> 22 ;
23 [label="entropy = 0.0\nsamples = 1\nvalue = [1, 0]"] ;
21 -> 23 ;
24 [label="X[15] <= 0.806\nentropy = 0.722\nsamples = 5\nvalue = [4, 1]"] ;
20 -> 24 ;
25 [label="entropy = 0.0\nsamples = 4\nvalue = [4, 0]"] ;
24 -> 25 ;
26 [label="entropy = 0.0\nsamples = 1\nvalue = [0, 1]"] ;
24 -> 26 ;
27 [label="entropy = 0.0\nsamples = 5\nvalue = [5, 0]"] ;
19 -> 27 ;
28 [label="X[28] <= 0.265\nentropy = 0.742\nsamples = 38\nvalue = [30, 8]"] ;
8 -> 28 ;
29 [label="X[25] <= -0.945\nentropy = 0.426\nsamples = 23\nvalue = [21, 2]"] ;
28 -> 29 ;
30 [label="X[10] <= -1.06\nentropy = 0.863\nsamples = 7\nvalue = [5, 2]"] ;
29 -> 30 ;
31 [label="entropy = 0.0\nsamples = 1\nvalue = [0, 1]"] ;
30 -> 31 ;
32 [label="X[8] <= 0.351\nentropy = 0.65\nsamples = 6\nvalue = [5, 1]"] ;
30 -> 32 ;
33 [label="entropy = 0.0\nsamples = 4\nvalue = [4, 0]"] ;
32 -> 33 ;
34 [label="X[23] <= -0.066\nentropy = 1.0\nsamples = 2\nvalue = [1, 1]"] ;
32 -> 34 ;
35 [label="entropy = 0.0\nsamples = 1\nvalue = [1, 0]"] ;
34 -> 35 ;
36 [label="entropy = 0.0\nsamples = 1\nvalue = [0, 1]"] ;
34 -> 36 ;
37 [label="entropy = 0.0\nsamples = 16\nvalue = [16, 0]"] ;
29 -> 37 ;
38 [label="X[7] <= -0.817\nentropy = 0.971\nsamples = 15\nvalue = [9, 6]"] ;
28 -> 38 ;
39 [label="X[13] <= 0.811\nentropy = 0.971\nsamples = 10\nvalue = [4, 6]"] ;
38 -> 39 ;
40 [label="X[26] <= 0.555\nentropy = 1.0\nsamples = 8\nvalue = [4, 4]"] ;
39 -> 40 ;
41 [label="X[11] <= -0.938\nentropy = 0.918\nsamples = 6\nvalue = [2, 4]"] ;
40 -> 41 ;
42 [label="entropy = 0.0\nsamples = 1\nvalue = [1, 0]"] ;
41 -> 42 ;
43 [label="X[25] <= -0.945\nentropy = 0.722\nsamples = 5\nvalue = [1, 4]"] ;
41 -> 43 ;
44 [label="entropy = 0.0\nsamples = 2\nvalue = [0, 2]"] ;
43 -> 44 ;
45 [label="X[23] <= -0.066\nentropy = 0.918\nsamples = 3\nvalue = [1, 2]"] ;
43 -> 45 ;
46 [label="entropy = 0.0\nsamples = 1\nvalue = [0, 1]"] ;
45 -> 46 ;
47 [label="entropy = 1.0\nsamples = 2\nvalue = [1, 1]"] ;
45 -> 47 ;
48 [label="entropy = 0.0\nsamples = 2\nvalue = [2, 0]"] ;
40 -> 48 ;
49 [label="entropy = 0.0\nsamples = 2\nvalue = [0, 2]"] ;
39 -> 49 ;
50 [label="entropy = 0.0\nsamples = 5\nvalue = [5, 0]"] ;
38 -> 50 ;
51 [label="X[27] <= -1.038\nentropy = 0.675\nsamples = 197\nvalue = [162, 35]"] ;
5 -> 51 ;
52 [label="X[21] <= -0.76\nentropy = 0.165\nsamples = 41\nvalue = [40, 1]"] ;
51 -> 52 ;
53 [label="X[0] <= -0.317\nentropy = 0.811\nsamples = 4\nvalue = [3, 1]"] ;
52 -> 53 ;
54 [label="entropy = 0.0\nsamples = 3\nvalue = [3, 0]"] ;
53 -> 54 ;
55 [label="entropy = 0.0\nsamples = 1\nvalue = [0, 1]"] ;
53 -> 55 ;
56 [label="entropy = 0.0\nsamples = 37\nvalue = [37, 0]"] ;
52 -> 56 ;
57 [label="X[0] <= -0.317\nentropy = 0.756\nsamples = 156\nvalue = [122, 34]"] ;
51 -> 57 ;
58 [label="X[28] <= 0.265\nentropy = 0.419\nsamples = 59\nvalue = [54, 5]"] ;
57 -> 58 ;
59 [label="entropy = 0.0\nsamples = 32\nvalue = [32, 0]"] ;
58 -> 59 ;
60 [label="X[12] <= -0.19\nentropy = 0.691\nsamples = 27\nvalue = [22, 5]"] ;
58 -> 60 ;
61 [label="X[18] <= 1.19\nentropy = 0.831\nsamples = 19\nvalue = [14, 5]"] ;
60 -> 61 ;
62 [label="X[23] <= -0.066\nentropy = 0.94\nsamples = 14\nvalue = [9, 5]"] ;
61 -> 62 ;
63 [label="X[26] <= 0.555\nentropy = 1.0\nsamples = 6\nvalue = [3, 3]"] ;
62 -> 63 ;
64 [label="entropy = 0.918\nsamples = 3\nvalue = [1, 2]"] ;
63 -> 64 ;
65 [label="entropy = 0.918\nsamples = 3\nvalue = [2, 1]"] ;
63 -> 65 ;
66 [label="X[6] <= 0.52\nentropy = 0.811\nsamples = 8\nvalue = [6, 2]"] ;
62 -> 66 ;
67 [label="entropy = 0.0\nsamples = 2\nvalue = [2, 0]"] ;
66 -> 67 ;
68 [label="X[8] <= 0.351\nentropy = 0.918\nsamples = 6\nvalue = [4, 2]"] ;
66 -> 68 ;
69 [label="entropy = 0.0\nsamples = 1\nvalue = [1, 0]"] ;
68 -> 69 ;
70 [label="entropy = 0.971\nsamples = 5\nvalue = [3, 2]"] ;
68 -> 70 ;
71 [label="entropy = 0.0\nsamples = 5\nvalue = [5, 0]"] ;
61 -> 71 ;
72 [label="entropy = 0.0\nsamples = 8\nvalue = [8, 0]"] ;
60 -> 72 ;
73 [label="X[18] <= 1.19\nentropy = 0.88\nsamples = 97\nvalue = [68, 29]"] ;
57 -> 73 ;
74 [label="X[6] <= -0.703\nentropy = 0.914\nsamples = 88\nvalue = [59, 29]"] ;
73 -> 74 ;
75 [label="X[3] <= -1.004\nentropy = 0.711\nsamples = 36\nvalue = [29, 7]"] ;
74 -> 75 ;
76 [label="entropy = 0.0\nsamples = 2\nvalue = [0, 2]"] ;
75 -> 76 ;
77 [label="X[23] <= -0.066\nentropy = 0.602\nsamples = 34\nvalue = [29, 5]"] ;
75 -> 77 ;
78 [label="X[26] <= 0.555\nentropy = 0.323\nsamples = 17\nvalue = [16, 1]"] ;
77 -> 78 ;
79 [label="entropy = 0.0\nsamples = 14\nvalue = [14, 0]"] ;
78 -> 79 ;
80 [label="X[12] <= -0.19\nentropy = 0.918\nsamples = 3\nvalue = [2, 1]"] ;
78 -> 80 ;
81 [label="entropy = 0.0\nsamples = 2\nvalue = [2, 0]"] ;
80 -> 81 ;
82 [label="entropy = 0.0\nsamples = 1\nvalue = [0, 1]"] ;
80 -> 82 ;
83 [label="X[12] <= -0.19\nentropy = 0.787\nsamples = 17\nvalue = [13, 4]"] ;
77 -> 83 ;
84 [label="X[13] <= 0.811\nentropy = 1.0\nsamples = 6\nvalue = [3, 3]"] ;
83 -> 84 ;
85 [label="X[24] <= -0.404\nentropy = 0.811\nsamples = 4\nvalue = [1, 3]"] ;
84 -> 85 ;
86 [label="entropy = 0.918\nsamples = 3\nvalue = [1, 2]"] ;
85 -> 86 ;
87 [label="entropy = 0.0\nsamples = 1\nvalue = [0, 1]"] ;
85 -> 87 ;
88 [label="entropy = 0.0\nsamples = 2\nvalue = [2, 0]"] ;
84 -> 88 ;
89 [label="X[9] <= -0.802\nentropy = 0.439\nsamples = 11\nvalue = [10, 1]"] ;
83 -> 89 ;
90 [label="entropy = 0.0\nsamples = 1\nvalue = [0, 1]"] ;
89 -> 90 ;
91 [label="entropy = 0.0\nsamples = 10\nvalue = [10, 0]"] ;
89 -> 91 ;
92 [label="X[12] <= -0.19\nentropy = 0.983\nsamples = 52\nvalue = [30, 22]"] ;
74 -> 92 ;
93 [label="X[24] <= -0.404\nentropy = 0.896\nsamples = 32\nvalue = [22, 10]"] ;
92 -> 93 ;
94 [label="X[22] <= -1.404\nentropy = 1.0\nsamples = 16\nvalue = [8, 8]"] ;
93 -> 94 ;
95 [label="entropy = 0.0\nsamples = 3\nvalue = [3, 0]"] ;
94 -> 95 ;
96 [label="X[29] <= -1.026\nentropy = 0.961\nsamples = 13\nvalue = [5, 8]"] ;
94 -> 96 ;
97 [label="entropy = 0.0\nsamples = 3\nvalue = [0, 3]"] ;
96 -> 97 ;
98 [label="X[28] <= 0.265\nentropy = 1.0\nsamples = 10\nvalue = [5, 5]"] ;
96 -> 98 ;
99 [label="entropy = 0.0\nsamples = 1\nvalue = [1, 0]"] ;
98 -> 99 ;
100 [label="X[23] <= -0.066\nentropy = 0.991\nsamples = 9\nvalue = [4, 5]"] ;
98 -> 100 ;
101 [label="entropy = 0.0\nsamples = 2\nvalue = [0, 2]"] ;
100 -> 101 ;
102 [label="X[6] <= 0.52\nentropy = 0.985\nsamples = 7\nvalue = [4, 3]"] ;
100 -> 102 ;
103 [label="entropy = 0.971\nsamples = 5\nvalue = [3, 2]"] ;
102 -> 103 ;
104 [label="entropy = 1.0\nsamples = 2\nvalue = [1, 1]"] ;
102 -> 104 ;
105 [label="X[23] <= -0.066\nentropy = 0.544\nsamples = 16\nvalue = [14, 2]"] ;
93 -> 105 ;
106 [label="X[26] <= 0.555\nentropy = 0.811\nsamples = 8\nvalue = [6, 2]"] ;
105 -> 106 ;
107 [label="X[6] <= 0.52\nentropy = 0.971\nsamples = 5\nvalue = [3, 2]"] ;
106 -> 107 ;
108 [label="entropy = 0.918\nsamples = 3\nvalue = [1, 2]"] ;
107 -> 108 ;
109 [label="entropy = 0.0\nsamples = 2\nvalue = [2, 0]"] ;
107 -> 109 ;
110 [label="entropy = 0.0\nsamples = 3\nvalue = [3, 0]"] ;
106 -> 110 ;
111 [label="entropy = 0.0\nsamples = 8\nvalue = [8, 0]"] ;
105 -> 111 ;
112 [label="X[6] <= 0.52\nentropy = 0.971\nsamples = 20\nvalue = [8, 12]"] ;
92 -> 112 ;
113 [label="X[9] <= -0.802\nentropy = 1.0\nsamples = 16\nvalue = [8, 8]"] ;
112 -> 113 ;
114 [label="entropy = 0.0\nsamples = 3\nvalue = [0, 3]"] ;
113 -> 114 ;
115 [label="X[8] <= 0.351\nentropy = 0.961\nsamples = 13\nvalue = [8, 5]"] ;
113 -> 115 ;
116 [label="entropy = 0.0\nsamples = 3\nvalue = [3, 0]"] ;
115 -> 116 ;
117 [label="X[28] <= 0.265\nentropy = 1.0\nsamples = 10\nvalue = [5, 5]"] ;
115 -> 117 ;
118 [label="X[26] <= 0.555\nentropy = 0.863\nsamples = 7\nvalue = [2, 5]"] ;
117 -> 118 ;
119 [label="entropy = 0.0\nsamples = 4\nvalue = [0, 4]"] ;
118 -> 119 ;
120 [label="entropy = 0.918\nsamples = 3\nvalue = [2, 1]"] ;
118 -> 120 ;
121 [label="entropy = 0.0\nsamples = 3\nvalue = [3, 0]"] ;
117 -> 121 ;
122 [label="entropy = 0.0\nsamples = 4\nvalue = [0, 4]"] ;
112 -> 122 ;
123 [label="entropy = 0.0\nsamples = 9\nvalue = [9, 0]"] ;
73 -> 123 ;
124 [label="entropy = 0.0\nsamples = 11\nvalue = [0, 11]"] ;
4 -> 124 ;
125 [label="X[5] <= 1.084\nentropy = 0.997\nsamples = 400\nvalue = [187, 213]"] ;
3 -> 125 ;
126 [label="X[27] <= -1.038\nentropy = 0.997\nsamples = 351\nvalue = [187, 164]"] ;
125 -> 126 ;
127 [label="X[11] <= -0.938\nentropy = 0.404\nsamples = 62\nvalue = [57, 5]"] ;
126 -> 127 ;
128 [label="X[12] <= -0.19\nentropy = 0.918\nsamples = 6\nvalue = [2, 4]"] ;
127 -> 128 ;
129 [label="entropy = 0.0\nsamples = 2\nvalue = [2, 0]"] ;
128 -> 129 ;
130 [label="entropy = 0.0\nsamples = 4\nvalue = [0, 4]"] ;
128 -> 130 ;
131 [label="X[24] <= -0.404\nentropy = 0.129\nsamples = 56\nvalue = [55, 1]"] ;
127 -> 131 ;
132 [label="X[23] <= -0.066\nentropy = 0.414\nsamples = 12\nvalue = [11, 1]"] ;
131 -> 132 ;
133 [label="X[28] <= 0.265\nentropy = 0.918\nsamples = 3\nvalue = [2, 1]"] ;
132 -> 133 ;
134 [label="entropy = 0.0\nsamples = 2\nvalue = [2, 0]"] ;
133 -> 134 ;
135 [label="entropy = 0.0\nsamples = 1\nvalue = [0, 1]"] ;
133 -> 135 ;
136 [label="entropy = 0.0\nsamples = 9\nvalue = [9, 0]"] ;
132 -> 136 ;
137 [label="entropy = 0.0\nsamples = 44\nvalue = [44, 0]"] ;
131 -> 137 ;
138 [label="X[13] <= 0.811\nentropy = 0.993\nsamples = 289\nvalue = [130, 159]"] ;
126 -> 138 ;
139 [label="X[1] <= 0.845\nentropy = 1.0\nsamples = 232\nvalue = [119, 113]"] ;
138 -> 139 ;
140 [label="X[14] <= 0.804\nentropy = 0.984\nsamples = 190\nvalue = [109, 81]"] ;
139 -> 140 ;
141 [label="X[16] <= -0.836\nentropy = 0.933\nsamples = 149\nvalue = [97, 52]"] ;
140 -> 141 ;
142 [label="entropy = 0.0\nsamples = 19\nvalue = [19, 0]"] ;
141 -> 142 ;
143 [label="X[11] <= -0.938\nentropy = 0.971\nsamples = 130\nvalue = [78, 52]"] ;
141 -> 143 ;
144 [label="entropy = 0.0\nsamples = 7\nvalue = [0, 7]"] ;
143 -> 144 ;
145 [label="X[18] <= 1.19\nentropy = 0.947\nsamples = 123\nvalue = [78, 45]"] ;
143 -> 145 ;
146 [label="X[7] <= -0.817\nentropy = 0.968\nsamples = 114\nvalue = [69, 45]"] ;
145 -> 146 ;
147 [label="X[9] <= -0.802\nentropy = 0.984\nsamples = 106\nvalue = [61, 45]"] ;
146 -> 147 ;
148 [label="entropy = 0.0\nsamples = 6\nvalue = [6, 0]"] ;
147 -> 148 ;
149 [label="X[21] <= -0.76\nentropy = 0.993\nsamples = 100\nvalue = [55, 45]"] ;
147 -> 149 ;
150 [label="entropy = 0.0\nsamples = 5\nvalue = [0, 5]"] ;
149 -> 150 ;
151 [label="X[15] <= 1.473\nentropy = 0.982\nsamples = 95\nvalue = [55, 40]"] ;
149 -> 151 ;
152 [label="X[0] <= -0.317\nentropy = 0.962\nsamples = 88\nvalue = [54, 34]"] ;
151 -> 152 ;
153 [label="X[25] <= -0.945\nentropy = 0.634\nsamples = 25\nvalue = [21, 4]"] ;
152 -> 153 ;
154 [label="entropy = 0.0\nsamples = 2\nvalue = [0, 2]"] ;
153 -> 154 ;
155 [label="X[28] <= 0.265\nentropy = 0.426\nsamples = 23\nvalue = [21, 2]"] ;
153 -> 155 ;
156 [label="entropy = 0.0\nsamples = 10\nvalue = [10, 0]"] ;
155 -> 156 ;
157 [label="X[12] <= -0.19\nentropy = 0.619\nsamples = 13\nvalue = [11, 2]"] ;
155 -> 157 ;
158 [label="X[26] <= 0.555\nentropy = 0.971\nsamples = 5\nvalue = [3, 2]"] ;
157 -> 158 ;
159 [label="entropy = 0.918\nsamples = 3\nvalue = [1, 2]"] ;
158 -> 159 ;
160 [label="entropy = 0.0\nsamples = 2\nvalue = [2, 0]"] ;
158 -> 160 ;
161 [label="entropy = 0.0\nsamples = 8\nvalue = [8, 0]"] ;
157 -> 161 ;
162 [label="X[6] <= -0.703\nentropy = 0.998\nsamples = 63\nvalue = [33, 30]"] ;
152 -> 162 ;
163 [label="X[12] <= -0.19\nentropy = 0.837\nsamples = 30\nvalue = [22, 8]"] ;
162 -> 163 ;
164 [label="X[25] <= 0.263\nentropy = 0.989\nsamples = 16\nvalue = [9, 7]"] ;
163 -> 164 ;
165 [label="entropy = 0.0\nsamples = 6\nvalue = [6, 0]"] ;
164 -> 165 ;
166 [label="X[8] <= 0.351\nentropy = 0.881\nsamples = 10\nvalue = [3, 7]"] ;
164 -> 166 ;
167 [label="entropy = 0.0\nsamples = 2\nvalue = [2, 0]"] ;
166 -> 167 ;
168 [label="entropy = 0.544\nsamples = 8\nvalue = [1, 7]"] ;
166 -> 168 ;
169 [label="X[8] <= 0.351\nentropy = 0.371\nsamples = 14\nvalue = [13, 1]"] ;
163 -> 169 ;
170 [label="X[24] <= -0.404\nentropy = 0.722\nsamples = 5\nvalue = [4, 1]"] ;
169 -> 170 ;
171 [label="entropy = 0.0\nsamples = 1\nvalue = [1, 0]"] ;
170 -> 171 ;
172 [label="entropy = 0.811\nsamples = 4\nvalue = [3, 1]"] ;
170 -> 172 ;
173 [label="entropy = 0.0\nsamples = 9\nvalue = [9, 0]"] ;
169 -> 173 ;
174 [label="X[8] <= 0.351\nentropy = 0.918\nsamples = 33\nvalue = [11, 22]"] ;
162 -> 174 ;
175 [label="X[25] <= 0.263\nentropy = 0.65\nsamples = 18\nvalue = [3, 15]"] ;
174 -> 175 ;
176 [label="entropy = 0.0\nsamples = 4\nvalue = [0, 4]"] ;
175 -> 176 ;
177 [label="X[6] <= 0.52\nentropy = 0.75\nsamples = 14\nvalue = [3, 11]"] ;
175 -> 177 ;
178 [label="entropy = 0.619\nsamples = 13\nvalue = [2, 11]"] ;
177 -> 178 ;
179 [label="entropy = 0.0\nsamples = 1\nvalue = [1, 0]"] ;
177 -> 179 ;
180 [label="X[25] <= -0.945\nentropy = 0.997\nsamples = 15\nvalue = [8, 7]"] ;
174 -> 180 ;
181 [label="entropy = 0.0\nsamples = 3\nvalue = [0, 3]"] ;
180 -> 181 ;
182 [label="X[28] <= 0.265\nentropy = 0.918\nsamples = 12\nvalue = [8, 4]"] ;
180 -> 182 ;
183 [label="entropy = 0.0\nsamples = 5\nvalue = [5, 0]"] ;
182 -> 183 ;
184 [label="entropy = 0.985\nsamples = 7\nvalue = [3, 4]"] ;
182 -> 184 ;
185 [label="X[29] <= -1.026\nentropy = 0.592\nsamples = 7\nvalue = [1, 6]"] ;
151 -> 185 ;
186 [label="entropy = 0.0\nsamples = 1\nvalue = [1, 0]"] ;
185 -> 186 ;
187 [label="entropy = 0.0\nsamples = 6\nvalue = [0, 6]"] ;
185 -> 187 ;
188 [label="entropy = 0.0\nsamples = 8\nvalue = [8, 0]"] ;
146 -> 188 ;
189 [label="entropy = 0.0\nsamples = 9\nvalue = [9, 0]"] ;
145 -> 189 ;
190 [label="X[23] <= -0.066\nentropy = 0.872\nsamples = 41\nvalue = [12, 29]"] ;
140 -> 190 ;
191 [label="X[7] <= -0.817\nentropy = 0.575\nsamples = 22\nvalue = [3, 19]"] ;
190 -> 191 ;
192 [label="X[18] <= 1.19\nentropy = 0.286\nsamples = 20\nvalue = [1, 19]"] ;
191 -> 192 ;
193 [label="entropy = 0.0\nsamples = 19\nvalue = [0, 19]"] ;
192 -> 193 ;
194 [label="entropy = 0.0\nsamples = 1\nvalue = [1, 0]"] ;
192 -> 194 ;
195 [label="entropy = 0.0\nsamples = 2\nvalue = [2, 0]"] ;
191 -> 195 ;
196 [label="X[25] <= -0.945\nentropy = 0.998\nsamples = 19\nvalue = [9, 10]"] ;
190 -> 196 ;
197 [label="entropy = 0.0\nsamples = 6\nvalue = [0, 6]"] ;
196 -> 197 ;
198 [label="X[6] <= -0.703\nentropy = 0.89\nsamples = 13\nvalue = [9, 4]"] ;
196 -> 198 ;
199 [label="X[12] <= -0.19\nentropy = 0.722\nsamples = 5\nvalue = [1, 4]"] ;
198 -> 199 ;
200 [label="entropy = 0.0\nsamples = 1\nvalue = [1, 0]"] ;
199 -> 200 ;
201 [label="entropy = 0.0\nsamples = 4\nvalue = [0, 4]"] ;
199 -> 201 ;
202 [label="entropy = 0.0\nsamples = 8\nvalue = [8, 0]"] ;
198 -> 202 ;
203 [label="X[18] <= 1.19\nentropy = 0.792\nsamples = 42\nvalue = [10, 32]"] ;
139 -> 203 ;
204 [label="X[25] <= 0.263\nentropy = 0.629\nsamples = 38\nvalue = [6, 32]"] ;
203 -> 204 ;
205 [label="X[15] <= 1.473\nentropy = 1.0\nsamples = 6\nvalue = [3, 3]"] ;
204 -> 205 ;
206 [label="X[0] <= -0.317\nentropy = 0.811\nsamples = 4\nvalue = [1, 3]"] ;
205 -> 206 ;
207 [label="entropy = 0.0\nsamples = 1\nvalue = [1, 0]"] ;
206 -> 207 ;
208 [label="entropy = 0.0\nsamples = 3\nvalue = [0, 3]"] ;
206 -> 208 ;
209 [label="entropy = 0.0\nsamples = 2\nvalue = [2, 0]"] ;
205 -> 209 ;
210 [label="X[26] <= 0.555\nentropy = 0.449\nsamples = 32\nvalue = [3, 29]"] ;
204 -> 210 ;
211 [label="X[6] <= -0.703\nentropy = 0.258\nsamples = 23\nvalue = [1, 22]"] ;
210 -> 211 ;
212 [label="X[0] <= -0.317\nentropy = 0.722\nsamples = 5\nvalue = [1, 4]"] ;
211 -> 212 ;
213 [label="entropy = 0.0\nsamples = 2\nvalue = [0, 2]"] ;
212 -> 213 ;
214 [label="entropy = 0.918\nsamples = 3\nvalue = [1, 2]"] ;
212 -> 214 ;
215 [label="entropy = 0.0\nsamples = 18\nvalue = [0, 18]"] ;
211 -> 215 ;
216 [label="X[14] <= 0.804\nentropy = 0.764\nsamples = 9\nvalue = [2, 7]"] ;
210 -> 216 ;
217 [label="X[6] <= 0.52\nentropy = 0.544\nsamples = 8\nvalue = [1, 7]"] ;
216 -> 217 ;
218 [label="X[6] <= -0.703\nentropy = 0.811\nsamples = 4\nvalue = [1, 3]"] ;
217 -> 218 ;
219 [label="entropy = 0.0\nsamples = 2\nvalue = [0, 2]"] ;
218 -> 219 ;
220 [label="X[15] <= 0.138\nentropy = 1.0\nsamples = 2\nvalue = [1, 1]"] ;
218 -> 220 ;
221 [label="entropy = 0.0\nsamples = 1\nvalue = [0, 1]"] ;
220 -> 221 ;
222 [label="entropy = 0.0\nsamples = 1\nvalue = [1, 0]"] ;
220 -> 222 ;
223 [label="entropy = 0.0\nsamples = 4\nvalue = [0, 4]"] ;
217 -> 223 ;
224 [label="entropy = 0.0\nsamples = 1\nvalue = [1, 0]"] ;
216 -> 224 ;
225 [label="entropy = 0.0\nsamples = 4\nvalue = [4, 0]"] ;
203 -> 225 ;
226 [label="X[7] <= -0.817\nentropy = 0.708\nsamples = 57\nvalue = [11, 46]"] ;
138 -> 226 ;
227 [label="X[19] <= -1.162\nentropy = 0.463\nsamples = 51\nvalue = [5, 46]"] ;
226 -> 227 ;
228 [label="entropy = 0.0\nsamples = 2\nvalue = [2, 0]"] ;
227 -> 228 ;
229 [label="X[8] <= 0.351\nentropy = 0.332\nsamples = 49\nvalue = [3, 46]"] ;
227 -> 229 ;
230 [label="X[26] <= 0.555\nentropy = 0.25\nsamples = 48\nvalue = [2, 46]"] ;
229 -> 230 ;
231 [label="entropy = 0.0\nsamples = 37\nvalue = [0, 37]"] ;
230 -> 231 ;
232 [label="X[0] <= -0.317\nentropy = 0.684\nsamples = 11\nvalue = [2, 9]"] ;
230 -> 232 ;
233 [label="X[16] <= -0.836\nentropy = 1.0\nsamples = 4\nvalue = [2, 2]"] ;
232 -> 233 ;
234 [label="entropy = 0.0\nsamples = 2\nvalue = [0, 2]"] ;
233 -> 234 ;
235 [label="entropy = 0.0\nsamples = 2\nvalue = [2, 0]"] ;
233 -> 235 ;
236 [label="entropy = 0.0\nsamples = 7\nvalue = [0, 7]"] ;
232 -> 236 ;
237 [label="entropy = 0.0\nsamples = 1\nvalue = [1, 0]"] ;
229 -> 237 ;
238 [label="entropy = 0.0\nsamples = 6\nvalue = [6, 0]"] ;
226 -> 238 ;
239 [label="entropy = 0.0\nsamples = 49\nvalue = [0, 49]"] ;
125 -> 239 ;
240 [label="X[13] <= -0.587\nentropy = 0.511\nsamples = 3026\nvalue = [344, 2682]"] ;
0 -> 240 [labeldistance=2.5, labelangle=-45, headlabel="False"] ;
241 [label="X[5] <= 1.084\nentropy = 0.592\nsamples = 126\nvalue = [108, 18]"] ;
240 -> 241 ;
242 [label="X[28] <= -1.497\nentropy = 0.391\nsamples = 117\nvalue = [108, 9]"] ;
241 -> 242 ;
243 [label="entropy = 0.0\nsamples = 5\nvalue = [0, 5]"] ;
242 -> 243 ;
244 [label="X[22] <= -1.404\nentropy = 0.222\nsamples = 112\nvalue = [108, 4]"] ;
242 -> 244 ;
245 [label="X[12] <= -0.19\nentropy = 0.837\nsamples = 15\nvalue = [11, 4]"] ;
244 -> 245 ;
246 [label="entropy = 0.0\nsamples = 10\nvalue = [10, 0]"] ;
245 -> 246 ;
247 [label="X[28] <= 0.265\nentropy = 0.722\nsamples = 5\nvalue = [1, 4]"] ;
245 -> 247 ;
248 [label="entropy = 0.0\nsamples = 1\nvalue = [1, 0]"] ;
247 -> 248 ;
249 [label="entropy = 0.0\nsamples = 4\nvalue = [0, 4]"] ;
247 -> 249 ;
250 [label="entropy = 0.0\nsamples = 97\nvalue = [97, 0]"] ;
244 -> 250 ;
251 [label="entropy = 0.0\nsamples = 9\nvalue = [0, 9]"] ;
241 -> 251 ;
252 [label="X[25] <= 0.263\nentropy = 0.407\nsamples = 2900\nvalue = [236, 2664]"] ;
240 -> 252 ;
253 [label="X[25] <= -0.945\nentropy = 0.684\nsamples = 951\nvalue = [173, 778]"] ;
252 -> 253 ;
254 [label="X[27] <= -1.038\nentropy = 0.158\nsamples = 436\nvalue = [10, 426]"] ;
253 -> 254 ;
255 [label="X[6] <= 0.52\nentropy = 0.602\nsamples = 34\nvalue = [5, 29]"] ;
254 -> 255 ;
256 [label="X[18] <= 1.19\nentropy = 0.98\nsamples = 12\nvalue = [5, 7]"] ;
255 -> 256 ;
257 [label="X[8] <= 0.351\nentropy = 0.764\nsamples = 9\nvalue = [2, 7]"] ;
256 -> 257 ;
258 [label="entropy = 0.0\nsamples = 5\nvalue = [0, 5]"] ;
257 -> 258 ;
259 [label="X[23] <= -0.066\nentropy = 1.0\nsamples = 4\nvalue = [2, 2]"] ;
257 -> 259 ;
260 [label="entropy = 0.0\nsamples = 2\nvalue = [0, 2]"] ;
259 -> 260 ;
261 [label="entropy = 0.0\nsamples = 2\nvalue = [2, 0]"] ;
259 -> 261 ;
262 [label="entropy = 0.0\nsamples = 3\nvalue = [3, 0]"] ;
256 -> 262 ;
263 [label="entropy = 0.0\nsamples = 22\nvalue = [0, 22]"] ;
255 -> 263 ;
264 [label="X[15] <= 0.138\nentropy = 0.097\nsamples = 402\nvalue = [5, 397]"] ;
254 -> 264 ;
265 [label="X[5] <= 1.084\nentropy = 0.136\nsamples = 262\nvalue = [5, 257]"] ;
264 -> 265 ;
266 [label="X[0] <= -0.317\nentropy = 0.189\nsamples = 173\nvalue = [5, 168]"] ;
265 -> 266 ;
267 [label="X[28] <= 0.265\nentropy = 0.337\nsamples = 64\nvalue = [4, 60]"] ;
266 -> 267 ;
268 [label="X[14] <= -0.498\nentropy = 0.672\nsamples = 17\nvalue = [3, 14]"] ;
267 -> 268 ;
269 [label="X[11] <= -0.938\nentropy = 1.0\nsamples = 4\nvalue = [2, 2]"] ;
268 -> 269 ;
270 [label="entropy = 0.0\nsamples = 2\nvalue = [0, 2]"] ;
269 -> 270 ;
271 [label="entropy = 0.0\nsamples = 2\nvalue = [2, 0]"] ;
269 -> 271 ;
272 [label="X[13] <= 0.811\nentropy = 0.391\nsamples = 13\nvalue = [1, 12]"] ;
268 -> 272 ;
273 [label="entropy = 0.0\nsamples = 11\nvalue = [0, 11]"] ;
272 -> 273 ;
274 [label="X[20] <= -2.336\nentropy = 1.0\nsamples = 2\nvalue = [1, 1]"] ;
272 -> 274 ;
275 [label="entropy = 0.0\nsamples = 1\nvalue = [0, 1]"] ;
274 -> 275 ;
276 [label="entropy = 0.0\nsamples = 1\nvalue = [1, 0]"] ;
274 -> 276 ;
277 [label="X[6] <= 0.52\nentropy = 0.149\nsamples = 47\nvalue = [1, 46]"] ;
267 -> 277 ;
278 [label="X[12] <= -0.19\nentropy = 0.353\nsamples = 15\nvalue = [1, 14]"] ;
277 -> 278 ;
279 [label="X[6] <= -0.703\nentropy = 0.722\nsamples = 5\nvalue = [1, 4]"] ;
278 -> 279 ;
280 [label="entropy = 0.0\nsamples = 4\nvalue = [0, 4]"] ;
279 -> 280 ;
281 [label="entropy = 0.0\nsamples = 1\nvalue = [1, 0]"] ;
279 -> 281 ;
282 [label="entropy = 0.0\nsamples = 10\nvalue = [0, 10]"] ;
278 -> 282 ;
283 [label="entropy = 0.0\nsamples = 32\nvalue = [0, 32]"] ;
277 -> 283 ;
284 [label="X[14] <= -0.498\nentropy = 0.075\nsamples = 109\nvalue = [1, 108]"] ;
266 -> 284 ;
285 [label="X[8] <= 0.351\nentropy = 0.242\nsamples = 25\nvalue = [1, 24]"] ;
284 -> 285 ;
286 [label="X[12] <= -0.19\nentropy = 0.544\nsamples = 8\nvalue = [1, 7]"] ;
285 -> 286 ;
287 [label="entropy = 0.0\nsamples = 3\nvalue = [0, 3]"] ;
286 -> 287 ;
288 [label="X[6] <= 0.52\nentropy = 0.722\nsamples = 5\nvalue = [1, 4]"] ;
286 -> 288 ;
289 [label="entropy = 0.0\nsamples = 2\nvalue = [0, 2]"] ;
288 -> 289 ;
290 [label="X[3] <= -1.004\nentropy = 0.918\nsamples = 3\nvalue = [1, 2]"] ;
288 -> 290 ;
291 [label="entropy = 0.0\nsamples = 1\nvalue = [0, 1]"] ;
290 -> 291 ;
292 [label="entropy = 1.0\nsamples = 2\nvalue = [1, 1]"] ;
290 -> 292 ;
293 [label="entropy = 0.0\nsamples = 17\nvalue = [0, 17]"] ;
285 -> 293 ;
294 [label="entropy = 0.0\nsamples = 84\nvalue = [0, 84]"] ;
284 -> 294 ;
295 [label="entropy = 0.0\nsamples = 89\nvalue = [0, 89]"] ;
265 -> 295 ;
296 [label="entropy = 0.0\nsamples = 140\nvalue = [0, 140]"] ;
264 -> 296 ;
297 [label="X[13] <= 0.811\nentropy = 0.901\nsamples = 515\nvalue = [163, 352]"] ;
253 -> 297 ;
298 [label="X[6] <= 0.52\nentropy = 0.972\nsamples = 406\nvalue = [163, 243]"] ;
297 -> 298 ;
299 [label="X[5] <= 1.084\nentropy = 0.983\nsamples = 187\nvalue = [108, 79]"] ;
298 -> 299 ;
300 [label="X[23] <= -0.066\nentropy = 0.967\nsamples = 178\nvalue = [108, 70]"] ;
299 -> 300 ;
301 [label="X[24] <= -0.404\nentropy = 0.875\nsamples = 122\nvalue = [86, 36]"] ;
300 -> 301 ;
302 [label="X[26] <= 0.555\nentropy = 0.535\nsamples = 41\nvalue = [36, 5]"] ;
301 -> 302 ;
303 [label="X[16] <= -0.836\nentropy = 0.179\nsamples = 37\nvalue = [36, 1]"] ;
302 -> 303 ;
304 [label="X[14] <= -0.498\nentropy = 0.918\nsamples = 3\nvalue = [2, 1]"] ;
303 -> 304 ;
305 [label="entropy = 0.0\nsamples = 2\nvalue = [2, 0]"] ;
304 -> 305 ;
306 [label="entropy = 0.0\nsamples = 1\nvalue = [0, 1]"] ;
304 -> 306 ;
307 [label="entropy = 0.0\nsamples = 34\nvalue = [34, 0]"] ;
303 -> 307 ;
308 [label="entropy = 0.0\nsamples = 4\nvalue = [0, 4]"] ;
302 -> 308 ;
309 [label="X[12] <= -0.19\nentropy = 0.96\nsamples = 81\nvalue = [50, 31]"] ;
301 -> 309 ;
310 [label="X[15] <= 0.806\nentropy = 0.799\nsamples = 33\nvalue = [25, 8]"] ;
309 -> 310 ;
311 [label="X[19] <= -1.162\nentropy = 0.709\nsamples = 31\nvalue = [25, 6]"] ;
310 -> 311 ;
312 [label="entropy = 0.0\nsamples = 8\nvalue = [8, 0]"] ;
311 -> 312 ;
313 [label="X[2] <= -1.097\nentropy = 0.828\nsamples = 23\nvalue = [17, 6]"] ;
311 -> 313 ;
314 [label="entropy = 0.0\nsamples = 1\nvalue = [0, 1]"] ;
313 -> 314 ;
315 [label="X[16] <= -0.836\nentropy = 0.773\nsamples = 22\nvalue = [17, 5]"] ;
313 -> 315 ;
316 [label="entropy = 0.0\nsamples = 1\nvalue = [0, 1]"] ;
315 -> 316 ;
317 [label="X[8] <= 0.351\nentropy = 0.702\nsamples = 21\nvalue = [17, 4]"] ;
315 -> 317 ;
318 [label="X[14] <= 0.804\nentropy = 0.918\nsamples = 12\nvalue = [8, 4]"] ;
317 -> 318 ;
319 [label="X[6] <= -0.703\nentropy = 0.971\nsamples = 10\nvalue = [6, 4]"] ;
318 -> 319 ;
320 [label="X[14] <= -0.498\nentropy = 0.65\nsamples = 6\nvalue = [5, 1]"] ;
319 -> 320 ;
321 [label="entropy = 0.0\nsamples = 3\nvalue = [3, 0]"] ;
320 -> 321 ;
322 [label="entropy = 0.918\nsamples = 3\nvalue = [2, 1]"] ;
320 -> 322 ;
323 [label="X[0] <= -0.317\nentropy = 0.811\nsamples = 4\nvalue = [1, 3]"] ;
319 -> 323 ;
324 [label="entropy = 0.0\nsamples = 1\nvalue = [1, 0]"] ;
323 -> 324 ;
325 [label="entropy = 0.0\nsamples = 3\nvalue = [0, 3]"] ;
323 -> 325 ;
326 [label="entropy = 0.0\nsamples = 2\nvalue = [2, 0]"] ;
318 -> 326 ;
327 [label="entropy = 0.0\nsamples = 9\nvalue = [9, 0]"] ;
317 -> 327 ;
328 [label="entropy = 0.0\nsamples = 2\nvalue = [0, 2]"] ;
310 -> 328 ;
329 [label="X[27] <= -1.038\nentropy = 0.999\nsamples = 48\nvalue = [25, 23]"] ;
309 -> 329 ;
330 [label="entropy = 0.0\nsamples = 4\nvalue = [4, 0]"] ;
329 -> 330 ;
331 [label="X[19] <= -1.162\nentropy = 0.999\nsamples = 44\nvalue = [21, 23]"] ;
329 -> 331 ;
332 [label="entropy = 0.0\nsamples = 3\nvalue = [0, 3]"] ;
331 -> 332 ;
333 [label="X[29] <= -1.026\nentropy = 1.0\nsamples = 41\nvalue = [21, 20]"] ;
331 -> 333 ;
334 [label="entropy = 0.0\nsamples = 2\nvalue = [0, 2]"] ;
333 -> 334 ;
335 [label="X[6] <= -0.703\nentropy = 0.996\nsamples = 39\nvalue = [21, 18]"] ;
333 -> 335 ;
336 [label="X[28] <= -1.497\nentropy = 0.977\nsamples = 17\nvalue = [7, 10]"] ;
335 -> 336 ;
337 [label="entropy = 0.0\nsamples = 1\nvalue = [1, 0]"] ;
336 -> 337 ;
338 [label="X[0] <= -0.317\nentropy = 0.954\nsamples = 16\nvalue = [6, 10]"] ;
336 -> 338 ;
339 [label="entropy = 0.0\nsamples = 3\nvalue = [0, 3]"] ;
338 -> 339 ;
340 [label="X[26] <= 0.555\nentropy = 0.996\nsamples = 13\nvalue = [6, 7]"] ;
338 -> 340 ;
341 [label="X[2] <= -1.097\nentropy = 0.98\nsamples = 12\nvalue = [5, 7]"] ;
340 -> 341 ;
342 [label="entropy = 0.0\nsamples = 1\nvalue = [0, 1]"] ;
341 -> 342 ;
343 [label="X[14] <= 0.804\nentropy = 0.994\nsamples = 11\nvalue = [5, 6]"] ;
341 -> 343 ;
344 [label="X[14] <= -0.498\nentropy = 0.954\nsamples = 8\nvalue = [3, 5]"] ;
343 -> 344 ;
345 [label="entropy = 0.971\nsamples = 5\nvalue = [2, 3]"] ;
344 -> 345 ;
346 [label="entropy = 0.918\nsamples = 3\nvalue = [1, 2]"] ;
344 -> 346 ;
347 [label="entropy = 0.918\nsamples = 3\nvalue = [2, 1]"] ;
343 -> 347 ;
348 [label="entropy = 0.0\nsamples = 1\nvalue = [1, 0]"] ;
340 -> 348 ;
349 [label="X[8] <= 0.351\nentropy = 0.946\nsamples = 22\nvalue = [14, 8]"] ;
335 -> 349 ;
350 [label="X[1] <= 0.845\nentropy = 0.852\nsamples = 18\nvalue = [13, 5]"] ;
349 -> 350 ;
351 [label="X[18] <= 1.19\nentropy = 0.787\nsamples = 17\nvalue = [13, 4]"] ;
350 -> 351 ;
352 [label="X[0] <= -0.317\nentropy = 0.619\nsamples = 13\nvalue = [11, 2]"] ;
351 -> 352 ;
353 [label="entropy = 0.0\nsamples = 8\nvalue = [8, 0]"] ;
352 -> 353 ;
354 [label="X[14] <= 0.804\nentropy = 0.971\nsamples = 5\nvalue = [3, 2]"] ;
352 -> 354 ;
355 [label="X[28] <= -1.497\nentropy = 0.918\nsamples = 3\nvalue = [1, 2]"] ;
354 -> 355 ;
356 [label="entropy = 0.0\nsamples = 2\nvalue = [0, 2]"] ;
355 -> 356 ;
357 [label="entropy = 0.0\nsamples = 1\nvalue = [1, 0]"] ;
355 -> 357 ;
358 [label="entropy = 0.0\nsamples = 2\nvalue = [2, 0]"] ;
354 -> 358 ;
359 [label="X[28] <= 0.265\nentropy = 1.0\nsamples = 4\nvalue = [2, 2]"] ;
351 -> 359 ;
360 [label="entropy = 0.0\nsamples = 2\nvalue = [2, 0]"] ;
359 -> 360 ;
361 [label="entropy = 0.0\nsamples = 2\nvalue = [0, 2]"] ;
359 -> 361 ;
362 [label="entropy = 0.0\nsamples = 1\nvalue = [0, 1]"] ;
350 -> 362 ;
363 [label="X[18] <= 1.19\nentropy = 0.811\nsamples = 4\nvalue = [1, 3]"] ;
349 -> 363 ;
364 [label="entropy = 0.0\nsamples = 3\nvalue = [0, 3]"] ;
363 -> 364 ;
365 [label="entropy = 0.0\nsamples = 1\nvalue = [1, 0]"] ;
363 -> 365 ;
366 [label="X[6] <= -0.703\nentropy = 0.967\nsamples = 56\nvalue = [22, 34]"] ;
300 -> 366 ;
367 [label="X[24] <= -0.404\nentropy = 0.661\nsamples = 35\nvalue = [6, 29]"] ;
366 -> 367 ;
368 [label="X[12] <= -0.19\nentropy = 0.918\nsamples = 18\nvalue = [6, 12]"] ;
367 -> 368 ;
369 [label="entropy = 0.0\nsamples = 3\nvalue = [3, 0]"] ;
368 -> 369 ;
370 [label="X[28] <= 0.265\nentropy = 0.722\nsamples = 15\nvalue = [3, 12]"] ;
368 -> 370 ;
371 [label="X[17] <= -1.013\nentropy = 0.971\nsamples = 5\nvalue = [3, 2]"] ;
370 -> 371 ;
372 [label="entropy = 0.0\nsamples = 2\nvalue = [0, 2]"] ;
371 -> 372 ;
373 [label="entropy = 0.0\nsamples = 3\nvalue = [3, 0]"] ;
371 -> 373 ;
374 [label="entropy = 0.0\nsamples = 10\nvalue = [0, 10]"] ;
370 -> 374 ;
375 [label="entropy = 0.0\nsamples = 17\nvalue = [0, 17]"] ;
367 -> 375 ;
376 [label="X[0] <= -0.317\nentropy = 0.792\nsamples = 21\nvalue = [16, 5]"] ;
366 -> 376 ;
377 [label="entropy = 0.0\nsamples = 7\nvalue = [7, 0]"] ;
376 -> 377 ;
378 [label="X[14] <= -0.498\nentropy = 0.94\nsamples = 14\nvalue = [9, 5]"] ;
376 -> 378 ;
379 [label="X[12] <= -0.19\nentropy = 0.722\nsamples = 10\nvalue = [8, 2]"] ;
378 -> 379 ;
380 [label="X[8] <= 0.351\nentropy = 1.0\nsamples = 4\nvalue = [2, 2]"] ;
379 -> 380 ;
381 [label="entropy = 0.0\nsamples = 2\nvalue = [0, 2]"] ;
380 -> 381 ;
382 [label="entropy = 0.0\nsamples = 2\nvalue = [2, 0]"] ;
380 -> 382 ;
383 [label="entropy = 0.0\nsamples = 6\nvalue = [6, 0]"] ;
379 -> 383 ;
384 [label="X[12] <= -0.19\nentropy = 0.811\nsamples = 4\nvalue = [1, 3]"] ;
378 -> 384 ;
385 [label="entropy = 0.0\nsamples = 1\nvalue = [1, 0]"] ;
384 -> 385 ;
386 [label="entropy = 0.0\nsamples = 3\nvalue = [0, 3]"] ;
384 -> 386 ;
387 [label="entropy = 0.0\nsamples = 9\nvalue = [0, 9]"] ;
299 -> 387 ;
388 [label="X[19] <= -1.162\nentropy = 0.813\nsamples = 219\nvalue = [55, 164]"] ;
298 -> 388 ;
389 [label="entropy = 0.0\nsamples = 23\nvalue = [0, 23]"] ;
388 -> 389 ;
390 [label="X[24] <= -0.404\nentropy = 0.856\nsamples = 196\nvalue = [55, 141]"] ;
388 -> 390 ;
391 [label="X[28] <= 0.265\nentropy = 0.998\nsamples = 57\nvalue = [27, 30]"] ;
390 -> 391 ;
392 [label="X[1] <= 0.845\nentropy = 0.544\nsamples = 16\nvalue = [14, 2]"] ;
391 -> 392 ;
393 [label="X[14] <= -0.498\nentropy = 0.353\nsamples = 15\nvalue = [14, 1]"] ;
392 -> 393 ;
394 [label="entropy = 0.0\nsamples = 8\nvalue = [8, 0]"] ;
393 -> 394 ;
395 [label="X[14] <= 0.804\nentropy = 0.592\nsamples = 7\nvalue = [6, 1]"] ;
393 -> 395 ;
396 [label="entropy = 0.722\nsamples = 5\nvalue = [4, 1]"] ;
395 -> 396 ;
397 [label="entropy = 0.0\nsamples = 2\nvalue = [2, 0]"] ;
395 -> 397 ;
398 [label="entropy = 0.0\nsamples = 1\nvalue = [0, 1]"] ;
392 -> 398 ;
399 [label="X[1] <= 0.845\nentropy = 0.901\nsamples = 41\nvalue = [13, 28]"] ;
391 -> 399 ;
400 [label="X[16] <= -0.836\nentropy = 0.619\nsamples = 26\nvalue = [4, 22]"] ;
399 -> 400 ;
401 [label="entropy = 0.0\nsamples = 3\nvalue = [3, 0]"] ;
400 -> 401 ;
402 [label="X[27] <= -1.038\nentropy = 0.258\nsamples = 23\nvalue = [1, 22]"] ;
400 -> 402 ;
403 [label="X[8] <= 0.351\nentropy = 0.918\nsamples = 3\nvalue = [1, 2]"] ;
402 -> 403 ;
404 [label="entropy = 0.0\nsamples = 2\nvalue = [0, 2]"] ;
403 -> 404 ;
405 [label="entropy = 0.0\nsamples = 1\nvalue = [1, 0]"] ;
403 -> 405 ;
406 [label="entropy = 0.0\nsamples = 20\nvalue = [0, 20]"] ;
402 -> 406 ;
407 [label="X[14] <= -0.498\nentropy = 0.971\nsamples = 15\nvalue = [9, 6]"] ;
399 -> 407 ;
408 [label="X[26] <= 0.555\nentropy = 0.971\nsamples = 10\nvalue = [4, 6]"] ;
407 -> 408 ;
409 [label="X[27] <= -1.038\nentropy = 0.985\nsamples = 7\nvalue = [4, 3]"] ;
408 -> 409 ;
410 [label="entropy = 0.0\nsamples = 2\nvalue = [2, 0]"] ;
409 -> 410 ;
411 [label="X[15] <= 0.806\nentropy = 0.971\nsamples = 5\nvalue = [2, 3]"] ;
409 -> 411 ;
412 [label="entropy = 0.0\nsamples = 1\nvalue = [0, 1]"] ;
411 -> 412 ;
413 [label="X[29] <= -1.026\nentropy = 1.0\nsamples = 4\nvalue = [2, 2]"] ;
411 -> 413 ;
414 [label="entropy = 1.0\nsamples = 2\nvalue = [1, 1]"] ;
413 -> 414 ;
415 [label="entropy = 1.0\nsamples = 2\nvalue = [1, 1]"] ;
413 -> 415 ;
416 [label="entropy = 0.0\nsamples = 3\nvalue = [0, 3]"] ;
408 -> 416 ;
417 [label="entropy = 0.0\nsamples = 5\nvalue = [5, 0]"] ;
407 -> 417 ;
418 [label="X[15] <= 0.138\nentropy = 0.725\nsamples = 139\nvalue = [28, 111]"] ;
390 -> 418 ;
419 [label="X[27] <= -1.038\nentropy = 0.852\nsamples = 101\nvalue = [28, 73]"] ;
418 -> 419 ;
420 [label="entropy = 0.0\nsamples = 5\nvalue = [5, 0]"] ;
419 -> 420 ;
421 [label="X[14] <= -0.498\nentropy = 0.794\nsamples = 96\nvalue = [23, 73]"] ;
419 -> 421 ;
422 [label="X[26] <= 0.555\nentropy = 0.979\nsamples = 41\nvalue = [17, 24]"] ;
421 -> 422 ;
423 [label="X[8] <= 0.351\nentropy = 0.988\nsamples = 23\nvalue = [13, 10]"] ;
422 -> 423 ;
424 [label="X[12] <= -0.19\nentropy = 1.0\nsamples = 20\nvalue = [10, 10]"] ;
423 -> 424 ;
425 [label="entropy = 0.0\nsamples = 2\nvalue = [0, 2]"] ;
424 -> 425 ;
426 [label="X[11] <= -0.938\nentropy = 0.991\nsamples = 18\nvalue = [10, 8]"] ;
424 -> 426 ;
427 [label="entropy = 0.0\nsamples = 2\nvalue = [2, 0]"] ;
426 -> 427 ;
428 [label="X[9] <= -0.802\nentropy = 1.0\nsamples = 16\nvalue = [8, 8]"] ;
426 -> 428 ;
429 [label="entropy = 0.0\nsamples = 1\nvalue = [0, 1]"] ;
428 -> 429 ;
430 [label="X[28] <= -1.497\nentropy = 0.997\nsamples = 15\nvalue = [8, 7]"] ;
428 -> 430 ;
431 [label="entropy = 0.0\nsamples = 1\nvalue = [0, 1]"] ;
430 -> 431 ;
432 [label="X[18] <= 1.19\nentropy = 0.985\nsamples = 14\nvalue = [8, 6]"] ;
430 -> 432 ;
433 [label="X[28] <= 0.265\nentropy = 0.961\nsamples = 13\nvalue = [8, 5]"] ;
432 -> 433 ;
434 [label="X[23] <= -0.066\nentropy = 0.98\nsamples = 12\nvalue = [7, 5]"] ;
433 -> 434 ;
435 [label="entropy = 0.918\nsamples = 6\nvalue = [4, 2]"] ;
434 -> 435 ;
436 [label="entropy = 1.0\nsamples = 6\nvalue = [3, 3]"] ;
434 -> 436 ;
437 [label="entropy = 0.0\nsamples = 1\nvalue = [1, 0]"] ;
433 -> 437 ;
438 [label="entropy = 0.0\nsamples = 1\nvalue = [0, 1]"] ;
432 -> 438 ;
439 [label="entropy = 0.0\nsamples = 3\nvalue = [3, 0]"] ;
423 -> 439 ;
440 [label="X[21] <= -0.76\nentropy = 0.764\nsamples = 18\nvalue = [4, 14]"] ;
422 -> 440 ;
441 [label="entropy = 0.0\nsamples = 1\nvalue = [1, 0]"] ;
440 -> 441 ;
442 [label="X[29] <= -1.026\nentropy = 0.672\nsamples = 17\nvalue = [3, 14]"] ;
440 -> 442 ;
443 [label="entropy = 0.0\nsamples = 1\nvalue = [1, 0]"] ;
442 -> 443 ;
444 [label="X[18] <= 1.19\nentropy = 0.544\nsamples = 16\nvalue = [2, 14]"] ;
442 -> 444 ;
445 [label="X[1] <= 0.845\nentropy = 0.371\nsamples = 14\nvalue = [1, 13]"] ;
444 -> 445 ;
446 [label="X[8] <= 0.351\nentropy = 0.503\nsamples = 9\nvalue = [1, 8]"] ;
445 -> 446 ;
447 [label="entropy = 0.65\nsamples = 6\nvalue = [1, 5]"] ;
446 -> 447 ;
448 [label="entropy = 0.0\nsamples = 3\nvalue = [0, 3]"] ;
446 -> 448 ;
449 [label="entropy = 0.0\nsamples = 5\nvalue = [0, 5]"] ;
445 -> 449 ;
450 [label="X[1] <= 0.845\nentropy = 1.0\nsamples = 2\nvalue = [1, 1]"] ;
444 -> 450 ;
451 [label="entropy = 0.0\nsamples = 1\nvalue = [1, 0]"] ;
450 -> 451 ;
452 [label="entropy = 0.0\nsamples = 1\nvalue = [0, 1]"] ;
450 -> 452 ;
453 [label="X[28] <= 0.265\nentropy = 0.497\nsamples = 55\nvalue = [6, 49]"] ;
421 -> 453 ;
454 [label="X[14] <= 0.804\nentropy = 0.601\nsamples = 41\nvalue = [6, 35]"] ;
453 -> 454 ;
455 [label="X[23] <= -0.066\nentropy = 0.258\nsamples = 23\nvalue = [1, 22]"] ;
454 -> 455 ;
456 [label="entropy = 0.0\nsamples = 15\nvalue = [0, 15]"] ;
455 -> 456 ;
457 [label="X[5] <= 1.084\nentropy = 0.544\nsamples = 8\nvalue = [1, 7]"] ;
455 -> 457 ;
458 [label="X[0] <= -0.317\nentropy = 0.65\nsamples = 6\nvalue = [1, 5]"] ;
457 -> 458 ;
459 [label="entropy = 0.0\nsamples = 1\nvalue = [0, 1]"] ;
458 -> 459 ;
460 [label="X[9] <= -0.802\nentropy = 0.722\nsamples = 5\nvalue = [1, 4]"] ;
458 -> 460 ;
461 [label="entropy = 0.0\nsamples = 1\nvalue = [0, 1]"] ;
460 -> 461 ;
462 [label="X[28] <= -1.497\nentropy = 0.811\nsamples = 4\nvalue = [1, 3]"] ;
460 -> 462 ;
463 [label="entropy = 0.0\nsamples = 1\nvalue = [0, 1]"] ;
462 -> 463 ;
464 [label="entropy = 0.918\nsamples = 3\nvalue = [1, 2]"] ;
462 -> 464 ;
465 [label="entropy = 0.0\nsamples = 2\nvalue = [0, 2]"] ;
457 -> 465 ;
466 [label="X[0] <= -0.317\nentropy = 0.852\nsamples = 18\nvalue = [5, 13]"] ;
454 -> 466 ;
467 [label="entropy = 0.0\nsamples = 2\nvalue = [2, 0]"] ;
466 -> 467 ;
468 [label="X[23] <= -0.066\nentropy = 0.696\nsamples = 16\nvalue = [3, 13]"] ;
466 -> 468 ;
469 [label="entropy = 0.0\nsamples = 7\nvalue = [0, 7]"] ;
468 -> 469 ;
470 [label="X[11] <= -0.938\nentropy = 0.918\nsamples = 9\nvalue = [3, 6]"] ;
468 -> 470 ;
471 [label="entropy = 0.0\nsamples = 3\nvalue = [0, 3]"] ;
470 -> 471 ;
472 [label="X[16] <= -0.836\nentropy = 1.0\nsamples = 6\nvalue = [3, 3]"] ;
470 -> 472 ;
473 [label="entropy = 0.0\nsamples = 1\nvalue = [0, 1]"] ;
472 -> 473 ;
474 [label="X[28] <= -1.497\nentropy = 0.971\nsamples = 5\nvalue = [3, 2]"] ;
472 -> 474 ;
475 [label="entropy = 0.0\nsamples = 2\nvalue = [2, 0]"] ;
474 -> 475 ;
476 [label="entropy = 0.918\nsamples = 3\nvalue = [1, 2]"] ;
474 -> 476 ;
477 [label="entropy = 0.0\nsamples = 14\nvalue = [0, 14]"] ;
453 -> 477 ;
478 [label="entropy = 0.0\nsamples = 38\nvalue = [0, 38]"] ;
418 -> 478 ;
479 [label="entropy = 0.0\nsamples = 109\nvalue = [0, 109]"] ;
297 -> 479 ;
480 [label="X[15] <= 0.138\nentropy = 0.206\nsamples = 1949\nvalue = [63, 1886]"] ;
252 -> 480 ;
481 [label="X[14] <= -0.498\nentropy = 0.276\nsamples = 1322\nvalue = [63, 1259]"] ;
480 -> 481 ;
482 [label="X[6] <= 0.52\nentropy = 0.547\nsamples = 333\nvalue = [42, 291]"] ;
481 -> 482 ;
483 [label="X[28] <= 0.265\nentropy = 0.724\nsamples = 184\nvalue = [37, 147]"] ;
482 -> 483 ;
484 [label="X[12] <= -0.19\nentropy = 0.948\nsamples = 79\nvalue = [29, 50]"] ;
483 -> 484 ;
485 [label="X[0] <= -0.317\nentropy = 0.981\nsamples = 31\nvalue = [18, 13]"] ;
484 -> 485 ;
486 [label="entropy = 0.0\nsamples = 6\nvalue = [6, 0]"] ;
485 -> 486 ;
487 [label="X[23] <= -0.066\nentropy = 0.999\nsamples = 25\nvalue = [12, 13]"] ;
485 -> 487 ;
488 [label="X[6] <= -0.703\nentropy = 0.874\nsamples = 17\nvalue = [12, 5]"] ;
487 -> 488 ;
489 [label="X[26] <= 0.555\nentropy = 0.414\nsamples = 12\nvalue = [11, 1]"] ;
488 -> 489 ;
490 [label="entropy = 0.0\nsamples = 11\nvalue = [11, 0]"] ;
489 -> 490 ;
491 [label="entropy = 0.0\nsamples = 1\nvalue = [0, 1]"] ;
489 -> 491 ;
492 [label="X[26] <= 0.555\nentropy = 0.722\nsamples = 5\nvalue = [1, 4]"] ;
488 -> 492 ;
493 [label="entropy = 0.0\nsamples = 3\nvalue = [0, 3]"] ;
492 -> 493 ;
494 [label="X[8] <= 0.351\nentropy = 1.0\nsamples = 2\nvalue = [1, 1]"] ;
492 -> 494 ;
495 [label="entropy = 0.0\nsamples = 1\nvalue = [0, 1]"] ;
494 -> 495 ;
496 [label="entropy = 0.0\nsamples = 1\nvalue = [1, 0]"] ;
494 -> 496 ;
497 [label="entropy = 0.0\nsamples = 8\nvalue = [0, 8]"] ;
487 -> 497 ;
498 [label="X[16] <= -0.836\nentropy = 0.777\nsamples = 48\nvalue = [11, 37]"] ;
484 -> 498 ;
499 [label="entropy = 0.0\nsamples = 14\nvalue = [0, 14]"] ;
498 -> 499 ;
500 [label="X[27] <= -1.038\nentropy = 0.908\nsamples = 34\nvalue = [11, 23]"] ;
498 -> 500 ;
501 [label="X[3] <= -1.004\nentropy = 0.722\nsamples = 5\nvalue = [4, 1]"] ;
500 -> 501 ;
502 [label="entropy = 0.0\nsamples = 1\nvalue = [0, 1]"] ;
501 -> 502 ;
503 [label="entropy = 0.0\nsamples = 4\nvalue = [4, 0]"] ;
501 -> 503 ;
504 [label="X[24] <= -0.404\nentropy = 0.797\nsamples = 29\nvalue = [7, 22]"] ;
500 -> 504 ;
505 [label="entropy = 0.0\nsamples = 5\nvalue = [0, 5]"] ;
504 -> 505 ;
506 [label="X[0] <= -0.317\nentropy = 0.871\nsamples = 24\nvalue = [7, 17]"] ;
504 -> 506 ;
507 [label="entropy = 0.0\nsamples = 1\nvalue = [1, 0]"] ;
506 -> 507 ;
508 [label="X[23] <= -0.066\nentropy = 0.828\nsamples = 23\nvalue = [6, 17]"] ;
506 -> 508 ;
509 [label="X[6] <= -0.703\nentropy = 0.439\nsamples = 11\nvalue = [1, 10]"] ;
508 -> 509 ;
510 [label="entropy = 0.0\nsamples = 5\nvalue = [0, 5]"] ;
509 -> 510 ;
511 [label="X[26] <= 0.555\nentropy = 0.65\nsamples = 6\nvalue = [1, 5]"] ;
509 -> 511 ;
512 [label="entropy = 0.811\nsamples = 4\nvalue = [1, 3]"] ;
511 -> 512 ;
513 [label="entropy = 0.0\nsamples = 2\nvalue = [0, 2]"] ;
511 -> 513 ;
514 [label="X[5] <= 1.084\nentropy = 0.98\nsamples = 12\nvalue = [5, 7]"] ;
508 -> 514 ;
515 [label="X[26] <= 0.555\nentropy = 0.994\nsamples = 11\nvalue = [5, 6]"] ;
514 -> 515 ;
516 [label="X[1] <= 0.845\nentropy = 0.971\nsamples = 10\nvalue = [4, 6]"] ;
515 -> 516 ;
517 [label="X[6] <= -0.703\nentropy = 1.0\nsamples = 8\nvalue = [4, 4]"] ;
516 -> 517 ;
518 [label="entropy = 1.0\nsamples = 2\nvalue = [1, 1]"] ;
517 -> 518 ;
519 [label="entropy = 1.0\nsamples = 6\nvalue = [3, 3]"] ;
517 -> 519 ;
520 [label="entropy = 0.0\nsamples = 2\nvalue = [0, 2]"] ;
516 -> 520 ;
521 [label="entropy = 0.0\nsamples = 1\nvalue = [1, 0]"] ;
515 -> 521 ;
522 [label="entropy = 0.0\nsamples = 1\nvalue = [0, 1]"] ;
514 -> 522 ;
523 [label="X[24] <= -0.404\nentropy = 0.389\nsamples = 105\nvalue = [8, 97]"] ;
483 -> 523 ;
524 [label="X[1] <= 0.845\nentropy = 0.167\nsamples = 81\nvalue = [2, 79]"] ;
523 -> 524 ;
525 [label="X[12] <= -0.19\nentropy = 0.101\nsamples = 76\nvalue = [1, 75]"] ;
524 -> 525 ;
526 [label="X[6] <= -0.703\nentropy = 0.211\nsamples = 30\nvalue = [1, 29]"] ;
525 -> 526 ;
527 [label="X[23] <= -0.066\nentropy = 0.439\nsamples = 11\nvalue = [1, 10]"] ;
526 -> 527 ;
528 [label="X[2] <= -1.097\nentropy = 1.0\nsamples = 2\nvalue = [1, 1]"] ;
527 -> 528 ;
529 [label="entropy = 0.0\nsamples = 1\nvalue = [0, 1]"] ;
528 -> 529 ;
530 [label="entropy = 0.0\nsamples = 1\nvalue = [1, 0]"] ;
528 -> 530 ;
531 [label="entropy = 0.0\nsamples = 9\nvalue = [0, 9]"] ;
527 -> 531 ;
532 [label="entropy = 0.0\nsamples = 19\nvalue = [0, 19]"] ;
526 -> 532 ;
533 [label="entropy = 0.0\nsamples = 46\nvalue = [0, 46]"] ;
525 -> 533 ;
534 [label="X[2] <= -1.097\nentropy = 0.722\nsamples = 5\nvalue = [1, 4]"] ;
524 -> 534 ;
535 [label="entropy = 0.0\nsamples = 4\nvalue = [0, 4]"] ;
534 -> 535 ;
536 [label="entropy = 0.0\nsamples = 1\nvalue = [1, 0]"] ;
534 -> 536 ;
537 [label="X[5] <= 1.084\nentropy = 0.811\nsamples = 24\nvalue = [6, 18]"] ;
523 -> 537 ;
538 [label="X[3] <= -1.004\nentropy = 0.954\nsamples = 16\nvalue = [6, 10]"] ;
537 -> 538 ;
539 [label="entropy = 0.0\nsamples = 4\nvalue = [0, 4]"] ;
538 -> 539 ;
540 [label="X[13] <= 0.811\nentropy = 1.0\nsamples = 12\nvalue = [6, 6]"] ;
538 -> 540 ;
541 [label="X[11] <= -0.938\nentropy = 0.65\nsamples = 6\nvalue = [5, 1]"] ;
540 -> 541 ;
542 [label="entropy = 0.0\nsamples = 1\nvalue = [0, 1]"] ;
541 -> 542 ;
543 [label="entropy = 0.0\nsamples = 5\nvalue = [5, 0]"] ;
541 -> 543 ;
544 [label="X[12] <= -0.19\nentropy = 0.65\nsamples = 6\nvalue = [1, 5]"] ;
540 -> 544 ;
545 [label="X[23] <= -0.066\nentropy = 1.0\nsamples = 2\nvalue = [1, 1]"] ;
544 -> 545 ;
546 [label="entropy = 0.0\nsamples = 1\nvalue = [0, 1]"] ;
545 -> 546 ;
547 [label="entropy = 0.0\nsamples = 1\nvalue = [1, 0]"] ;
545 -> 547 ;
548 [label="entropy = 0.0\nsamples = 4\nvalue = [0, 4]"] ;
544 -> 548 ;
549 [label="entropy = 0.0\nsamples = 8\nvalue = [0, 8]"] ;
537 -> 549 ;
550 [label="X[12] <= -0.19\nentropy = 0.212\nsamples = 149\nvalue = [5, 144]"] ;
482 -> 550 ;
551 [label="X[13] <= 0.811\nentropy = 0.503\nsamples = 36\nvalue = [4, 32]"] ;
550 -> 551 ;
552 [label="X[26] <= 0.555\nentropy = 0.787\nsamples = 17\nvalue = [4, 13]"] ;
551 -> 552 ;
553 [label="X[28] <= 0.265\nentropy = 0.971\nsamples = 10\nvalue = [4, 6]"] ;
552 -> 553 ;
554 [label="X[23] <= -0.066\nentropy = 0.918\nsamples = 6\nvalue = [4, 2]"] ;
553 -> 554 ;
555 [label="entropy = 0.0\nsamples = 1\nvalue = [0, 1]"] ;
554 -> 555 ;
556 [label="X[0] <= -0.317\nentropy = 0.722\nsamples = 5\nvalue = [4, 1]"] ;
554 -> 556 ;
557 [label="entropy = 0.0\nsamples = 2\nvalue = [2, 0]"] ;
556 -> 557 ;
558 [label="entropy = 0.918\nsamples = 3\nvalue = [2, 1]"] ;
556 -> 558 ;
559 [label="entropy = 0.0\nsamples = 4\nvalue = [0, 4]"] ;
553 -> 559 ;
560 [label="entropy = 0.0\nsamples = 7\nvalue = [0, 7]"] ;
552 -> 560 ;
561 [label="entropy = 0.0\nsamples = 19\nvalue = [0, 19]"] ;
551 -> 561 ;
562 [label="X[23] <= -0.066\nentropy = 0.073\nsamples = 113\nvalue = [1, 112]"] ;
550 -> 562 ;
563 [label="X[26] <= 0.555\nentropy = 0.235\nsamples = 26\nvalue = [1, 25]"] ;
562 -> 563 ;
564 [label="X[0] <= -0.317\nentropy = 0.469\nsamples = 10\nvalue = [1, 9]"] ;
563 -> 564 ;
565 [label="entropy = 0.0\nsamples = 7\nvalue = [0, 7]"] ;
564 -> 565 ;
566 [label="X[28] <= 0.265\nentropy = 0.918\nsamples = 3\nvalue = [1, 2]"] ;
564 -> 566 ;
567 [label="entropy = 0.0\nsamples = 1\nvalue = [1, 0]"] ;
566 -> 567 ;
568 [label="entropy = 0.0\nsamples = 2\nvalue = [0, 2]"] ;
566 -> 568 ;
569 [label="entropy = 0.0\nsamples = 16\nvalue = [0, 16]"] ;
563 -> 569 ;
570 [label="entropy = 0.0\nsamples = 87\nvalue = [0, 87]"] ;
562 -> 570 ;
571 [label="X[13] <= 0.811\nentropy = 0.148\nsamples = 989\nvalue = [21, 968]"] ;
481 -> 571 ;
572 [label="X[5] <= 1.084\nentropy = 0.228\nsamples = 568\nvalue = [21, 547]"] ;
571 -> 572 ;
573 [label="X[0] <= -0.317\nentropy = 0.281\nsamples = 431\nvalue = [21, 410]"] ;
572 -> 573 ;
574 [label="X[11] <= -0.938\nentropy = 0.537\nsamples = 106\nvalue = [13, 93]"] ;
573 -> 574 ;
575 [label="entropy = 0.0\nsamples = 53\nvalue = [0, 53]"] ;
574 -> 575 ;
576 [label="X[23] <= -0.066\nentropy = 0.804\nsamples = 53\nvalue = [13, 40]"] ;
574 -> 576 ;
577 [label="entropy = 0.0\nsamples = 22\nvalue = [0, 22]"] ;
576 -> 577 ;
578 [label="X[28] <= -1.497\nentropy = 0.981\nsamples = 31\nvalue = [13, 18]"] ;
576 -> 578 ;
579 [label="entropy = 0.0\nsamples = 4\nvalue = [4, 0]"] ;
578 -> 579 ;
580 [label="X[21] <= -0.76\nentropy = 0.918\nsamples = 27\nvalue = [9, 18]"] ;
578 -> 580 ;
581 [label="entropy = 0.0\nsamples = 9\nvalue = [0, 9]"] ;
580 -> 581 ;
582 [label="X[8] <= 0.351\nentropy = 1.0\nsamples = 18\nvalue = [9, 9]"] ;
580 -> 582 ;
583 [label="X[6] <= -0.703\nentropy = 0.89\nsamples = 13\nvalue = [4, 9]"] ;
582 -> 583 ;
584 [label="entropy = 0.0\nsamples = 4\nvalue = [0, 4]"] ;
583 -> 584 ;
585 [label="X[6] <= 0.52\nentropy = 0.991\nsamples = 9\nvalue = [4, 5]"] ;
583 -> 585 ;
586 [label="X[27] <= -1.038\nentropy = 0.985\nsamples = 7\nvalue = [4, 3]"] ;
585 -> 586 ;
587 [label="entropy = 0.0\nsamples = 1\nvalue = [0, 1]"] ;
586 -> 587 ;
588 [label="X[2] <= -1.097\nentropy = 0.918\nsamples = 6\nvalue = [4, 2]"] ;
586 -> 588 ;
589 [label="entropy = 0.0\nsamples = 1\nvalue = [1, 0]"] ;
588 -> 589 ;
590 [label="X[1] <= 0.845\nentropy = 0.971\nsamples = 5\nvalue = [3, 2]"] ;
588 -> 590 ;
591 [label="X[14] <= 0.804\nentropy = 0.811\nsamples = 4\nvalue = [3, 1]"] ;
590 -> 591 ;
592 [label="entropy = 0.0\nsamples = 2\nvalue = [2, 0]"] ;
591 -> 592 ;
593 [label="X[28] <= 0.265\nentropy = 1.0\nsamples = 2\nvalue = [1, 1]"] ;
591 -> 593 ;
594 [label="entropy = 0.0\nsamples = 1\nvalue = [1, 0]"] ;
593 -> 594 ;
595 [label="entropy = 0.0\nsamples = 1\nvalue = [0, 1]"] ;
593 -> 595 ;
596 [label="entropy = 0.0\nsamples = 1\nvalue = [0, 1]"] ;
590 -> 596 ;
597 [label="entropy = 0.0\nsamples = 2\nvalue = [0, 2]"] ;
585 -> 597 ;
598 [label="entropy = 0.0\nsamples = 5\nvalue = [5, 0]"] ;
582 -> 598 ;
599 [label="X[26] <= 0.555\nentropy = 0.167\nsamples = 325\nvalue = [8, 317]"] ;
573 -> 599 ;
600 [label="X[12] <= -0.19\nentropy = 0.248\nsamples = 194\nvalue = [8, 186]"] ;
599 -> 600 ;
601 [label="X[8] <= 0.351\nentropy = 0.404\nsamples = 62\nvalue = [5, 57]"] ;
600 -> 601 ;
602 [label="X[6] <= 0.52\nentropy = 0.722\nsamples = 15\nvalue = [3, 12]"] ;
601 -> 602 ;
603 [label="X[29] <= -1.026\nentropy = 0.918\nsamples = 9\nvalue = [3, 6]"] ;
602 -> 603 ;
604 [label="entropy = 0.0\nsamples = 2\nvalue = [0, 2]"] ;
603 -> 604 ;
605 [label="X[21] <= -0.76\nentropy = 0.985\nsamples = 7\nvalue = [3, 4]"] ;
603 -> 605 ;
606 [label="entropy = 0.0\nsamples = 1\nvalue = [0, 1]"] ;
605 -> 606 ;
607 [label="X[23] <= -0.066\nentropy = 1.0\nsamples = 6\nvalue = [3, 3]"] ;
605 -> 607 ;
608 [label="X[24] <= -0.404\nentropy = 0.971\nsamples = 5\nvalue = [2, 3]"] ;
607 -> 608 ;
609 [label="X[6] <= -0.703\nentropy = 0.918\nsamples = 3\nvalue = [2, 1]"] ;
608 -> 609 ;
610 [label="entropy = 0.0\nsamples = 2\nvalue = [2, 0]"] ;
609 -> 610 ;
611 [label="entropy = 0.0\nsamples = 1\nvalue = [0, 1]"] ;
609 -> 611 ;
612 [label="entropy = 0.0\nsamples = 2\nvalue = [0, 2]"] ;
608 -> 612 ;
613 [label="entropy = 0.0\nsamples = 1\nvalue = [1, 0]"] ;
607 -> 613 ;
614 [label="entropy = 0.0\nsamples = 6\nvalue = [0, 6]"] ;
602 -> 614 ;
615 [label="X[22] <= -1.404\nentropy = 0.254\nsamples = 47\nvalue = [2, 45]"] ;
601 -> 615 ;
616 [label="entropy = 0.0\nsamples = 1\nvalue = [1, 0]"] ;
615 -> 616 ;
617 [label="X[6] <= 0.52\nentropy = 0.151\nsamples = 46\nvalue = [1, 45]"] ;
615 -> 617 ;
618 [label="entropy = 0.0\nsamples = 32\nvalue = [0, 32]"] ;
617 -> 618 ;
619 [label="X[28] <= 0.265\nentropy = 0.371\nsamples = 14\nvalue = [1, 13]"] ;
617 -> 619 ;
620 [label="X[14] <= 0.804\nentropy = 0.592\nsamples = 7\nvalue = [1, 6]"] ;
619 -> 620 ;
621 [label="entropy = 0.0\nsamples = 3\nvalue = [0, 3]"] ;
620 -> 621 ;
622 [label="entropy = 0.811\nsamples = 4\nvalue = [1, 3]"] ;
620 -> 622 ;
623 [label="entropy = 0.0\nsamples = 7\nvalue = [0, 7]"] ;
619 -> 623 ;
624 [label="X[3] <= -1.004\nentropy = 0.156\nsamples = 132\nvalue = [3, 129]"] ;
600 -> 624 ;
625 [label="X[1] <= 0.187\nentropy = 0.811\nsamples = 4\nvalue = [1, 3]"] ;
624 -> 625 ;
626 [label="entropy = 0.0\nsamples = 1\nvalue = [1, 0]"] ;
625 -> 626 ;
627 [label="entropy = 0.0\nsamples = 3\nvalue = [0, 3]"] ;
625 -> 627 ;
628 [label="X[27] <= -1.038\nentropy = 0.116\nsamples = 128\nvalue = [2, 126]"] ;
624 -> 628 ;
629 [label="X[17] <= -1.013\nentropy = 0.469\nsamples = 10\nvalue = [1, 9]"] ;
628 -> 629 ;
630 [label="entropy = 0.0\nsamples = 7\nvalue = [0, 7]"] ;
629 -> 630 ;
631 [label="X[6] <= -0.703\nentropy = 0.918\nsamples = 3\nvalue = [1, 2]"] ;
629 -> 631 ;
632 [label="entropy = 0.0\nsamples = 2\nvalue = [0, 2]"] ;
631 -> 632 ;
633 [label="entropy = 0.0\nsamples = 1\nvalue = [1, 0]"] ;
631 -> 633 ;
634 [label="X[14] <= 0.804\nentropy = 0.071\nsamples = 118\nvalue = [1, 117]"] ;
628 -> 634 ;
635 [label="X[6] <= -0.703\nentropy = 0.112\nsamples = 67\nvalue = [1, 66]"] ;
634 -> 635 ;
636 [label="entropy = 0.0\nsamples = 28\nvalue = [0, 28]"] ;
635 -> 636 ;
637 [label="X[6] <= 0.52\nentropy = 0.172\nsamples = 39\nvalue = [1, 38]"] ;
635 -> 637 ;
638 [label="X[28] <= 0.265\nentropy = 0.286\nsamples = 20\nvalue = [1, 19]"] ;
637 -> 638 ;
639 [label="X[23] <= -0.066\nentropy = 0.414\nsamples = 12\nvalue = [1, 11]"] ;
638 -> 639 ;
640 [label="entropy = 0.0\nsamples = 6\nvalue = [0, 6]"] ;
639 -> 640 ;
641 [label="entropy = 0.65\nsamples = 6\nvalue = [1, 5]"] ;
639 -> 641 ;
642 [label="entropy = 0.0\nsamples = 8\nvalue = [0, 8]"] ;
638 -> 642 ;
643 [label="entropy = 0.0\nsamples = 19\nvalue = [0, 19]"] ;
637 -> 643 ;
644 [label="entropy = 0.0\nsamples = 51\nvalue = [0, 51]"] ;
634 -> 644 ;
645 [label="entropy = 0.0\nsamples = 131\nvalue = [0, 131]"] ;
599 -> 645 ;
646 [label="entropy = 0.0\nsamples = 137\nvalue = [0, 137]"] ;
572 -> 646 ;
647 [label="entropy = 0.0\nsamples = 421\nvalue = [0, 421]"] ;
571 -> 647 ;
648 [label="entropy = 0.0\nsamples = 627\nvalue = [0, 627]"] ;
480 -> 648 ;
}